1.823178529739379883e-01
-4.630432128906250000e-01
2.735854685306549072e-01
1.987333595752716064e-01
4.369851052761077881e-01
-3.796110749244689941e-01
-9.385911375284194946e-02
-4.858629703521728516e-01
1.799979954957962036e-01
4.019942283630371094e-01
8.511763066053390503e-02
3.503728806972503662e-01
8.824268579483032227e-01
3.402344509959220886e-02
4.348904490470886230e-01
1.019186019897460938e+00
-5.359570384025573730e-01
-4.437832161784172058e-02
4.180065393447875977e-01
-6.450495719909667969e-01
3.277480304241180420e-01
-3.857570933178067207e-03
9.011191129684448242e-01
-5.314306020736694336e-01
-1.505901366472244263e-01
-1.962143033742904663e-01
-1.115449704229831696e-02
9.032755494117736816e-01
-3.084719777107238770e-01
5.702087283134460449e-01
-5.470257401466369629e-01
1.103684976696968079e-01
6.741809844970703125e-01
-2.927853465080261230e-01
7.012291252613067627e-02
8.848606050014495850e-02
1.764625012874603271e-01
4.898054897785186768e-01
-3.781640827655792236e-01
4.154649376869201660e-01
-4.910883307456970215e-01
-3.821437656879425049e-01
-3.986544162034988403e-02
9.302348643541336060e-02
-1.961673796176910400e-01
1.469907611608505249e-01
1.691766977310180664e-01
2.586424350738525391e-01
3.349452316761016846e-01
-2.215227186679840088e-01
-1.220549643039703369e-02
6.561551094055175781e-01
4.594033956527709961e-01
1.023622751235961914e-01
-6.545368432998657227e-01
-2.113292068243026733e-01
1.960072219371795654e-01
-3.180700242519378662e-01
1.888848282396793365e-02
1.133010238409042358e-01
-4.163154214620590210e-02
3.485794737935066223e-02
6.687215566635131836e-01
1.167146921157836914e+00
1.143816635012626648e-01
5.271133184432983398e-01
-4.317778646945953369e-01
5.721699595451354980e-01
1.952257007360458374e-01
9.420214220881462097e-03
-2.657833099365234375e-01
6.265111267566680908e-02
1.648803651332855225e-01
-7.281914353370666504e-02
-1.412923187017440796e-01
2.596506774425506592e-01
-2.050225734710693359e-01
-8.457105159759521484e-01
3.213230073451995850e-01
8.719630837440490723e-01
-2.737528979778289795e-01
1.867341101169586182e-01
8.085761666297912598e-01
-6.642422825098037720e-02
2.769165635108947754e-01
3.715021014213562012e-01
-1.878035515546798706e-01
-2.527715861797332764e-01
-8.048243075609207153e-02
-1.550502777099609375e-01
-2.863044738769531250e-01
7.356198430061340332e-01
3.585945367813110352e-01
3.371282815933227539e-01
3.922848403453826904e-02
3.973554968833923340e-01
-3.618687987327575684e-01
5.966836810111999512e-01
1.381048113107681274e-01
1.244818791747093201e-02
1.990304440259933472e-01
3.768915534019470215e-01
-5.092780590057373047e-01
-5.247634276747703552e-02
4.867074489593505859e-01
-1.959043145179748535e-01
2.596840262413024902e-01
1.068133637309074402e-01
8.786865472793579102e-01
4.752801954746246338e-01
5.089044570922851562e-01
2.697356045246124268e-01
-8.815456628799438477e-01
6.468927860260009766e-02
1.387999802827835083e-01
-3.237325251102447510e-01
1.636546403169631958e-01
-2.275435626506805420e-01
7.199354767799377441e-01
8.815526217222213745e-02
-3.858029097318649292e-02
7.899746894836425781e-01
7.027279585599899292e-02
-6.259127259254455566e-01
8.246399462223052979e-02
4.476430639624595642e-02
-5.331092476844787598e-01
-7.970912754535675049e-02
-1.554385758936405182e-02
4.324479773640632629e-02
-2.664898633956909180e-01
1.200794130563735962e-01
4.026681482791900635e-01
4.384488165378570557e-01
6.816829442977905273e-01
7.528576254844665527e-01
-1.809064149856567383e-01
-3.464444577693939209e-01
-2.979138195514678955e-01
-1.483794599771499634e-01
5.466196537017822266e-01
5.134906768798828125e-01
-3.766572773456573486e-01
-8.508295416831970215e-01
1.398695856332778931e-01
-7.171090245246887207e-01
-2.773260772228240967e-01
-1.888159066438674927e-01
1.018277406692504883e-01
6.261582374572753906e-01
1.660628914833068848e-01
2.159423530101776123e-01
2.921351790428161621e-01
2.727802656590938568e-02
5.203633904457092285e-01
-1.069060787558555603e-01
1.405086070299148560e-01
6.050898507237434387e-02
8.545609712600708008e-01
3.502203524112701416e-02
1.164412051439285278e-01
2.161081433296203613e-01
5.739994645118713379e-01
1.216722093522548676e-02
5.766398310661315918e-01
-2.667481899261474609e-01
1.556548625230789185e-01
3.221823871135711670e-01
9.297980368137359619e-02
-6.071753501892089844e-01
-7.190456986427307129e-01
1.409446001052856445e-01
-3.916091322898864746e-01
-3.319222927093505859e-01
6.130840182304382324e-01
2.532671689987182617e-01
-1.402613073587417603e-01
2.242000550031661987e-01
7.495929300785064697e-02
4.550494849681854248e-01
7.471347451210021973e-01
4.388273060321807861e-01
6.518064141273498535e-01
7.450997084379196167e-02
6.692091822624206543e-01
-3.016174435615539551e-01
9.221824817359447479e-03
-3.704516887664794922e-01
4.780220985412597656e-01
-2.317167371511459351e-01
-9.011124968528747559e-01
-3.404059708118438721e-01
-2.205174118280410767e-01
-4.521860480308532715e-01
4.460028111934661865e-01
-2.984060645103454590e-01
4.004241526126861572e-01
-3.374318778514862061e-01
4.693208634853363037e-01
1.616209000349044800e-01
6.469192504882812500e-01
-6.055217385292053223e-01
5.569486021995544434e-01
-3.476932048797607422e-01
7.092536687850952148e-01
3.213987052440643311e-01
-3.734113574028015137e-01
6.772270798683166504e-01
-7.813530415296554565e-02
-2.773140557110309601e-02
-1.814634203910827637e-01
-1.435345709323883057e-01
6.698735058307647705e-02
-1.689514815807342529e-01
1.411354988813400269e-01
-3.123923242092132568e-01
6.813541054725646973e-01
5.223096162080764771e-02
-2.976753711700439453e-01
7.396221160888671875e-01
-4.461411386728286743e-02
1.799021475017070770e-02
3.609404563903808594e-01
7.564238309860229492e-01
-4.796999692916870117e-01
-1.066980883479118347e-01
5.884303450584411621e-01
4.334574937820434570e-01
-3.890440464019775391e-01
9.912850707769393921e-02
3.831158578395843506e-01
5.638524889945983887e-01
-6.355877965688705444e-02
-3.728960454463958740e-01
2.479703277349472046e-01
1.039531350135803223e+00
-7.451583445072174072e-02
6.041473746299743652e-01
4.512646198272705078e-01
-2.819071114063262939e-01
-5.011131167411804199e-01
1.887694597244262695e-01
-7.715535163879394531e-01
9.882171452045440674e-02
1.659473031759262085e-01
-1.224368289113044739e-01
1.059419363737106323e-01
1.714227795600891113e-01
-6.515116095542907715e-01
1.803994625806808472e-01
4.802035912871360779e-02
3.240658938884735107e-01
3.007914312183856964e-02
4.359605908393859863e-01
-4.723085463047027588e-01
-7.416620850563049316e-02
1.570113450288772583e-01
4.426907896995544434e-01
2.266617417335510254e-01
5.734575986862182617e-01
-1.910509914159774780e-01
7.178168296813964844e-01
6.431605815887451172e-01
-7.062698900699615479e-02
1.909338980913162231e-01
3.393128812313079834e-01
-4.158827066421508789e-01
1.571042090654373169e-01
6.828793883323669434e-01
-2.677094638347625732e-01
-2.678475081920623779e-01
-1.165064647793769836e-01
-9.306704252958297729e-02
-5.183320865035057068e-02
1.795143634080886841e-01
1.095488741993904114e-01
2.362087368965148926e-01
-3.056806027889251709e-01
3.091635406017303467e-01
6.137835979461669922e-01
-5.275330543518066406e-01
-1.526292413473129272e-01
-5.202557444572448730e-01
8.083539456129074097e-02
-7.734224796295166016e-01
-3.568907082080841064e-01
-1.032614614814519882e-02
7.978836447000503540e-02
-1.041928082704544067e-01
4.779187738895416260e-01
5.572866797447204590e-01
-3.868492245674133301e-01
2.476675063371658325e-01
2.264820635318756104e-01
4.172589778900146484e-01
-4.816231131553649902e-01
-8.021968007087707520e-01
2.964372932910919189e-01
2.685299813747406006e-01
4.733859002590179443e-01
-4.958539828658103943e-02
1.636833846569061279e-01
6.631808876991271973e-01
4.249717891216278076e-01
2.405335456132888794e-01
5.342325568199157715e-01
4.661638140678405762e-01
1.217149943113327026e-02
1.656888723373413086e-01
-1.470427811145782471e-01
1.969674378633499146e-01
-8.431989550590515137e-01
3.650870025157928467e-01
1.448317766189575195e-01
1.587378978729248047e-01
-1.653113961219787598e-01
-4.362525641918182373e-01
2.118932902812957764e-01
3.329516351222991943e-01
7.307988405227661133e-02
5.166366100311279297e-01
3.764670491218566895e-01
4.745905697345733643e-01
1.137859746813774109e-01
2.236093282699584961e-01
3.222383856773376465e-01
2.724273800849914551e-01
-4.668171107769012451e-01
2.879009842872619629e-01
-3.877130523324012756e-02
-1.217471510171890259e-01
3.650010526180267334e-01
3.050234019756317139e-01
-2.469943612813949585e-01
3.952768445014953613e-01
1.673052608966827393e-01
6.267600059509277344e-01
4.901925921440124512e-01
-8.139443397521972656e-02
-2.285340428352355957e-01
3.550377190113067627e-01
-9.527469873428344727e-01
-1.277346462011337280e-01
-8.548039942979812622e-02
5.662712454795837402e-01
1.744197160005569458e-01
3.283858597278594971e-01
4.330289065837860107e-01
2.477019131183624268e-01
5.391791462898254395e-01
-5.019168853759765625e-01
1.692325621843338013e-01
4.926970601081848145e-01
-2.551808357238769531e-01
-3.500661998987197876e-02
-2.839719057083129883e-01
-6.610683798789978027e-01
-6.810786128044128418e-01
7.957577705383300781e-02
-3.409660458564758301e-01
6.155375838279724121e-01
9.015280008316040039e-02
1.175338178873062134e-01
-6.147710084915161133e-01
3.466942012310028076e-01
4.447695612907409668e-01
-7.752370089292526245e-02
-1.770495474338531494e-01
3.764882087707519531e-01
-6.860909461975097656e-01
8.102177977561950684e-01
-9.792054444551467896e-02
8.301696181297302246e-01
3.207938075065612793e-01
4.801344573497772217e-01
5.082056522369384766e-01
-3.035860955715179443e-01
-1.475855112075805664e-01
2.094495110213756561e-02
1.633852422237396240e-01
-2.151901125907897949e-01
-8.192740380764007568e-03
-1.164209693670272827e-01
4.421704113483428955e-01
1.902243345975875854e-01
7.092148661613464355e-01
1.249548867344856262e-01
-6.232702732086181641e-01
1.292812526226043701e-01
-1.039716601371765137e-01
1.268425285816192627e-01
-3.430920839309692383e-01
-4.436576068401336670e-01
-2.268893122673034668e-01
-3.505642116069793701e-01
-4.917959868907928467e-01
6.386781930923461914e-01
5.219087600708007812e-01
3.400338292121887207e-01
2.325795590877532959e-01
-5.815805494785308838e-02
4.414908289909362793e-01
8.289538025856018066e-01
-2.579052150249481201e-01
-6.045566201210021973e-01
1.166420206427574158e-01
-1.041403412818908691e+00
4.307214319705963135e-01
7.453387379646301270e-01
3.215588331222534180e-01
1.085450574755668640e-01
-5.935186743736267090e-01
5.156641602516174316e-01
-7.648442983627319336e-01
1.001658678054809570e+00
5.165756940841674805e-01
-7.328185439109802246e-02
-1.436968743801116943e-01
-6.803418695926666260e-02
3.742210194468498230e-02
1.489054691046476364e-02
-6.431255489587783813e-02
3.293728530406951904e-01
-1.023474037647247314e-01
5.351110696792602539e-01
-3.914780318737030029e-01
1.338907927274703979e-01
9.832609444856643677e-02
-3.710845112800598145e-01
-5.157269909977912903e-02
3.999782502651214600e-01
-2.632128894329071045e-01
-2.771204710006713867e-01
4.248799085617065430e-01
8.570351600646972656e-01
4.955269694328308105e-01
7.037391662597656250e-01
-7.103986293077468872e-02
3.573368787765502930e-01
-3.820049762725830078e-01
8.215875625610351562e-01
4.399966299533843994e-01
-4.283078610897064209e-01
5.203211903572082520e-01
1.301647424697875977e-01
5.392854809761047363e-01
3.711991012096405029e-01
6.761669367551803589e-02
-1.098155081272125244e-01
5.195015668869018555e-01
3.421407341957092285e-01
3.385671675205230713e-01
2.368268221616744995e-01
1.749973148107528687e-01
2.819743156433105469e-01
4.853681325912475586e-01
-2.642407715320587158e-01
-6.584524512290954590e-01
2.729002535343170166e-01
2.354927361011505127e-01
-1.580686075612902641e-03
-2.826427519321441650e-01
5.634952783584594727e-01
7.506675720214843750e-01
5.588771104812622070e-01
-2.760552465915679932e-01
-1.748344153165817261e-01
3.315654769539833069e-02
-1.550698932260274887e-02
-1.818331517279148102e-02
1.762583404779434204e-01
2.965352535247802734e-01
-2.677235901355743408e-01
-7.122582793235778809e-01
8.236263692378997803e-02
2.990644276142120361e-01
6.814482808113098145e-01
-3.966010808944702148e-01
6.353676915168762207e-01
-3.974680602550506592e-01
2.334296256303787231e-01
5.342255234718322754e-01
2.796332724392414093e-02
2.099350243806838989e-01
-6.257176399230957031e-01
2.777076065540313721e-01
3.689800202846527100e-01
-2.169612497091293335e-01
-6.020102500915527344e-01
5.182443261146545410e-01
7.705429196357727051e-02
8.247107267379760742e-01
4.960403963923454285e-02
3.121912479400634766e-01
4.975090324878692627e-01
2.022709101438522339e-01
7.794498205184936523e-01
2.952217161655426025e-01
-5.922212004661560059e-01
2.039885073900222778e-01
-4.310909807682037354e-01
4.144864678382873535e-01
-4.536899924278259277e-01
-2.707219123840332031e-01
5.604323744773864746e-01
9.093643426895141602e-01
4.436396956443786621e-01
4.809277951717376709e-01
9.020215272903442383e-01
5.216507315635681152e-01
5.293820500373840332e-01
-3.627157956361770630e-02
