2.467963695526123047e-01
-6.813461780548095703e-01
-4.542113840579986572e-01
4.815800487995147705e-02
3.581467866897583008e-01
-8.099166750907897949e-01
-2.056154459714889526e-01
-5.569305270910263062e-02
-7.519664168357849121e-01
-2.968793213367462158e-01
-4.420922100543975830e-01
4.420830309391021729e-01
-2.509860098361968994e-01
-6.567634344100952148e-01
-5.520112514495849609e-01
-1.075951933860778809e+00
1.236850023269653320e-01
-1.878730654716491699e-01
-2.362759858369827271e-01
6.470091342926025391e-01
-2.276397645473480225e-01
-8.778800964355468750e-01
3.771124407649040222e-02
5.787165090441703796e-02
1.043804436922073364e-01
-4.639389514923095703e-01
6.794691085815429688e-02
4.783114492893218994e-01
9.919056296348571777e-01
6.252667307853698730e-01
-7.340882420539855957e-01
-3.285597776994109154e-04
1.019057035446166992e+00
4.628894329071044922e-01
-9.559713006019592285e-01
-6.320498883724212646e-02
-2.272242754697799683e-01
6.431427001953125000e-01
-2.460338771343231201e-01
-5.893089771270751953e-01
-4.664237797260284424e-01
3.484387695789337158e-01
-6.861332058906555176e-01
-8.678445816040039062e-01
-6.500574946403503418e-02
-2.324482500553131104e-01
-9.077819064259529114e-03
-1.686839014291763306e-01
-7.266611456871032715e-01
-6.861950755119323730e-01
-7.737749218940734863e-01
-1.010404109954833984e+00
7.393935918807983398e-01
9.607744216918945312e-02
-5.138702988624572754e-01
1.192647367715835571e-01
7.073917984962463379e-02
9.008246064186096191e-01
-7.389035820960998535e-01
3.613293468952178955e-01
-3.892148137092590332e-01
-1.292914032936096191e+00
-2.885185480117797852e-01
-2.193251252174377441e-01
-1.084231853485107422e+00
5.582299232482910156e-01
-6.261863708496093750e-01
9.767931103706359863e-01
3.634901251643896103e-03
-3.267463147640228271e-01
-2.317346334457397461e-01
-7.035052180290222168e-01
2.740427553653717041e-01
-1.738110482692718506e-01
-1.101241350173950195e+00
7.017738819122314453e-01
-8.865309357643127441e-01
8.931754231452941895e-01
-3.725809454917907715e-01
9.165304899215698242e-02
1.955754682421684265e-02
-1.028712630271911621e+00
-7.297999262809753418e-01
8.286204338073730469e-01
4.716295301914215088e-01
1.889323629438877106e-02
1.020806789398193359e+00
-2.567624747753143311e-01
1.684451252222061157e-01
-6.467095613479614258e-01
-8.087284117937088013e-02
1.012985348701477051e+00
-9.929099082946777344e-01
-2.677048146724700928e-01
3.495288491249084473e-01
-2.955020368099212646e-01
-1.437532901763916016e+00
-1.409684419631958008e-01
4.689071327447891235e-03
4.338151812553405762e-01
3.371630609035491943e-01
1.110211014747619629e+00
1.136989742517471313e-01
-1.099108532071113586e-01
1.141058728098869324e-01
-1.847068369388580322e-01
-3.576743975281715393e-02
-1.709539294242858887e+00
2.572698295116424561e-01
-3.965496122837066650e-01
-7.084192633628845215e-01
-7.538530826568603516e-01
5.948042273521423340e-01
3.917514383792877197e-01
1.407578215003013611e-02
-2.107529342174530029e-01
-2.281786650419235229e-01
-4.475198388099670410e-01
-1.966796964406967163e-01
-7.731056213378906250e-01
-5.843710303306579590e-01
-1.497833728790283203e-01
3.290268778800964355e-01
-4.978775978088378906e-01
1.736607775092124939e-02
-5.741035342216491699e-01
-3.641061782836914062e-01
-4.651279449462890625e-01
-2.410580962896347046e-01
-2.701390720903873444e-02
7.824758887290954590e-01
2.267485558986663818e-01
-2.058123797178268433e-01
-1.029127836227416992e+00
4.602781534194946289e-01
1.271616220474243164e-01
8.487823605537414551e-02
-3.977452870458364487e-03
-1.126296520233154297e+00
-6.933969855308532715e-01
-4.581105113029479980e-01
1.381063610315322876e-01
-4.113380610942840576e-01
-5.058313012123107910e-01
-6.994496583938598633e-01
-8.476375788450241089e-02
8.755707740783691406e-02
-6.087331771850585938e-01
-7.387002706527709961e-01
3.993708491325378418e-01
4.486123025417327881e-01
-5.949292182922363281e-01
-7.448808550834655762e-01
4.591690897941589355e-01
-8.540028929710388184e-01
-4.476613998413085938e-01
-1.287733912467956543e+00
-8.806461095809936523e-02
-4.421349465847015381e-01
-5.234983284026384354e-03
9.640390276908874512e-01
-6.326180696487426758e-01
-1.009605050086975098e+00
9.510061740875244141e-01
4.374998509883880615e-01
9.513253569602966309e-01
5.896688625216484070e-02
1.931153237819671631e-01
-5.335461497306823730e-01
4.357125982642173767e-02
-6.532462835311889648e-01
-4.467862546443939209e-01
1.107812643051147461e+00
-4.934092760086059570e-01
6.521244049072265625e-01
-1.058652758598327637e+00
-3.593786358833312988e-01
-8.499170541763305664e-01
-7.517145276069641113e-01
4.471927881240844727e-01
-5.824091434478759766e-01
-6.257314980030059814e-02
-5.889629945158958435e-02
1.420867443084716797e-01
5.030846595764160156e-01
-1.754836738109588623e-01
1.012816727161407471e-01
1.925748735666275024e-01
1.043121814727783203e+00
-3.082128167152404785e-01
-4.525603055953979492e-01
9.868937730789184570e-01
-1.606087684631347656e+00
-4.492983520030975342e-01
-3.995133638381958008e-01
5.262397527694702148e-01
-7.103875279426574707e-01
9.931218624114990234e-02
-1.734207391738891602e+00
2.362655252218246460e-01
-5.162944793701171875e-01
2.027629017829895020e-01
-9.368177056312561035e-01
-6.459876894950866699e-01
8.273336887359619141e-01
6.018137931823730469e-01
-3.131704330444335938e-01
-5.266265869140625000e-01
-1.258527934551239014e-01
7.534804195165634155e-02
8.362125754356384277e-01
-8.758342266082763672e-01
-2.239389121532440186e-01
-8.334290981292724609e-01
5.444275140762329102e-01
-1.892742514610290527e-01
2.645889520645141602e-01
-7.102040052413940430e-01
-7.307859063148498535e-01
-3.789167478680610657e-02
-1.105549216270446777e+00
4.501623213291168213e-01
-1.304741621017456055e+00
7.486180663108825684e-01
-6.169021725654602051e-01
5.726362466812133789e-01
4.697794020175933838e-01
-1.970738470554351807e-01
6.049061417579650879e-01
-3.431039154529571533e-01
-8.225957155227661133e-01
-7.680402994155883789e-01
-4.721032679080963135e-01
1.071656271815299988e-01
-6.396661996841430664e-01
-7.797917723655700684e-02
-3.751217946410179138e-02
-8.584260344505310059e-01
-6.223461031913757324e-01
5.151633620262145996e-01
-9.960109591484069824e-01
-8.710971474647521973e-01
1.195993945002555847e-01
-4.672428369522094727e-01
-2.558923512697219849e-02
-6.054438948631286621e-01
9.074912406504154205e-03
-4.094138145446777344e-01
-4.477532804012298584e-01
9.748682379722595215e-02
-1.510124802589416504e+00
-7.224075794219970703e-01
-8.040695190429687500e-01
-2.234044522047042847e-01
-8.145316839218139648e-01
-3.842209279537200928e-01
-1.304297447204589844e-01
1.241947531700134277e+00
-6.461166143417358398e-01
2.751510739326477051e-01
1.906827539205551147e-01
1.117979958653450012e-01
4.445672035217285156e-01
-6.846939213573932648e-03
-2.404380887746810913e-01
7.485094666481018066e-02
-3.257284164428710938e-01
-1.393785834312438965e+00
-2.952112257480621338e-01
-9.356848001480102539e-01
-9.915331006050109863e-01
-5.455959439277648926e-01
-6.783953905105590820e-01
-6.227040290832519531e-01
-8.172840625047683716e-02
-1.778151541948318481e-01
3.529337048530578613e-01
-5.922453403472900391e-01
8.926002681255340576e-02
-6.787628531455993652e-01
-1.868383586406707764e-01
-5.541729331016540527e-01
-1.802641525864601135e-02
-3.495477735996246338e-01
7.846539616584777832e-01
-5.814034938812255859e-01
-5.409159660339355469e-01
-2.229429967701435089e-02
4.855318963527679443e-01
-1.289336085319519043e+00
-1.641423851251602173e-01
-6.834735274314880371e-01
6.660211831331253052e-02
1.733252853155136108e-01
-2.177293896675109863e-01
9.239031672477722168e-01
-6.788203716278076172e-01
3.346822559833526611e-01
2.134495228528976440e-01
-1.288785815238952637e+00
1.725044399499893188e-01
-6.068224906921386719e-01
-6.268731951713562012e-01
-4.932757616043090820e-01
-2.936680614948272705e-01
-7.220489382743835449e-01
6.367048621177673340e-02
2.113397717475891113e-01
1.243762969970703125e+00
4.158261418342590332e-01
1.147418618202209473e+00
2.838390469551086426e-01
9.905797839164733887e-01
6.625378131866455078e-02
-3.797353208065032959e-01
-4.436221420764923096e-01
-3.792291581630706787e-01
-1.050391942262649536e-01
-1.251897513866424561e-01
-1.464153289794921875e+00
8.047455549240112305e-02
6.877061724662780762e-02
5.894360542297363281e-01
-8.776953816413879395e-02
-2.818523049354553223e-01
-1.400745213031768799e-01
1.798837482929229736e-01
-5.697647333145141602e-01
7.778117656707763672e-01
-4.314922392368316650e-01
8.218612521886825562e-02
-3.962143063545227051e-01
1.850251406431198120e-01
3.109071850776672363e-01
5.255436301231384277e-01
2.491019815206527710e-01
2.212212234735488892e-01
-4.160046279430389404e-01
-6.968050599098205566e-01
-4.792438074946403503e-02
-8.500924110412597656e-01
4.963193833827972412e-01
1.295014321804046631e-01
-1.508298516273498535e-01
-3.665696829557418823e-02
-1.051952242851257324e-01
-1.014211654663085938e+00
-5.147537589073181152e-01
4.764844477176666260e-01
6.517986059188842773e-01
4.398651719093322754e-01
-4.315026104450225830e-01
-1.444449067115783691e+00
2.458682507276535034e-01
7.581658959388732910e-01
-1.496777087450027466e-01
4.817503690719604492e-01
-4.767363369464874268e-01
-4.574621319770812988e-01
-6.647337079048156738e-01
7.027347683906555176e-01
-7.426131367683410645e-01
-2.083722949028015137e-01
6.097062230110168457e-01
-5.555935502052307129e-01
-6.051807403564453125e-01
-1.089394167065620422e-01
2.955794567242264748e-03
-3.142273128032684326e-01
2.510847151279449463e-01
-4.637339115142822266e-01
-5.958071444183588028e-03
-4.819115623831748962e-02
-1.788436919450759888e-01
-1.802798807621002197e-01
-9.852866530418395996e-01
-6.009038537740707397e-02
-3.278567790985107422e-01
-9.721413254737854004e-01
1.089132651686668396e-01
-9.685873389244079590e-01
-1.029108762741088867e+00
2.421742528676986694e-01
3.226697444915771484e-02
1.010693669319152832e+00
-7.517119050025939941e-01
1.093477606773376465e-01
-8.123676180839538574e-01
6.982977390289306641e-01
-6.469685435295104980e-01
-5.279001593589782715e-01
-2.764281332492828369e-01
-7.104777544736862183e-02
-2.171416580677032471e-01
-4.443646967411041260e-02
-1.011357069015502930e+00
5.671812891960144043e-01
2.745622396469116211e-01
1.925383210182189941e-01
-1.066845655441284180e+00
-7.450929284095764160e-01
-3.143225610256195068e-01
4.405175745487213135e-01
-4.569352567195892334e-01
-4.835252761840820312e-01
2.435524016618728638e-02
-3.040317296981811523e-01
-6.786040067672729492e-01
-8.915174603462219238e-01
9.004627913236618042e-02
-4.242132604122161865e-01
1.446842551231384277e-01
-1.281147360801696777e+00
-1.169323682785034180e+00
3.588179349899291992e-01
-6.423664689064025879e-01
-5.157059431076049805e-01
-8.262254595756530762e-01
-7.710744142532348633e-01
-4.636287987232208252e-01
-6.922181248664855957e-01
-5.592474937438964844e-01
-6.801416277885437012e-01
-4.323567748069763184e-01
-8.804801106452941895e-02
-7.153616547584533691e-01
1.232985854148864746e+00
-7.106667160987854004e-01
9.192205965518951416e-02
-3.022667206823825836e-02
-4.807657003402709961e-01
-4.330917075276374817e-02
1.394211053848266602e-01
-1.221623346209526062e-01
7.720236778259277344e-01
-2.680663764476776123e-01
8.027016520500183105e-01
-3.946008980274200439e-01
-4.702354669570922852e-01
-4.774903357028961182e-01
-1.072773523628711700e-02
2.139699161052703857e-01
5.784479901194572449e-02
-6.427519321441650391e-01
-4.120495021343231201e-01
-6.710005402565002441e-01
-6.679211556911468506e-02
-7.283347845077514648e-02
4.247799217700958252e-01
3.293245136737823486e-01
5.507855210453271866e-03
6.750749796628952026e-02
-2.932152748107910156e-01
2.690330445766448975e-01
-6.024128198623657227e-01
4.092127382755279541e-01
1.276945471763610840e-01
3.782338229939341545e-03
1.492286771535873413e-01
-8.100808858871459961e-01
-7.751767635345458984e-01
2.270948290824890137e-01
-9.015126228332519531e-01
-8.480731844902038574e-01
7.181373983621597290e-02
-9.774261713027954102e-02
-3.563757538795471191e-01
5.278670191764831543e-01
3.196966052055358887e-01
-1.216435790061950684e+00
6.902077198028564453e-01
3.816062510013580322e-01
-4.470511153340339661e-02
1.016251966357231140e-01
-4.649448990821838379e-01
3.701114654541015625e-02
-1.671757549047470093e-01
7.067953348159790039e-01
-3.510330021381378174e-01
-3.212968409061431885e-01
-5.096445605158805847e-02
-1.064127609133720398e-01
-3.633150458335876465e-01
5.666958093643188477e-01
4.646218717098236084e-01
-1.050481200218200684e-01
-2.717394828796386719e-01
-4.254693388938903809e-01
-2.736803293228149414e-01
-4.673443138599395752e-01
-9.639549255371093750e-01
-3.046882748603820801e-01
8.299430012702941895e-01
1.997608393430709839e-01
-3.845418989658355713e-01
5.360586047172546387e-01
1.548717916011810303e-01
-1.643539518117904663e-01
1.272454738616943359e+00
-4.013499319553375244e-01
1.690218895673751831e-01
-4.868539571762084961e-01
-1.209241151809692383e+00
-1.019835233688354492e+00
-5.207207202911376953e-01
-2.415009289979934692e-01
1.348119676113128662e-01
5.456833913922309875e-02
-4.020596668124198914e-02
7.120603322982788086e-01
-4.937332868576049805e-01
-9.924879670143127441e-01
