-7.564594596624374390e-02
-8.308740258216857910e-01
9.507276415824890137e-01
2.052315026521682739e-01
-1.403807878494262695e+00
-2.071756571531295776e-01
-4.621590673923492432e-01
-1.015337347984313965e+00
-7.138699889183044434e-01
1.029006123542785645e+00
-5.225536972284317017e-02
-1.462258458137512207e+00
-3.577480912208557129e-01
-2.615833580493927002e-01
-1.928019076585769653e-01
-4.774031639099121094e-01
-1.857324969023466110e-03
-1.862812042236328125e-01
-2.874571979045867920e-01
-1.500820964574813843e-01
-1.494285345077514648e+00
-4.310249537229537964e-02
7.316655665636062622e-02
-3.452941477298736572e-01
9.064761400222778320e-01
1.015727639198303223e+00
-4.544518291950225830e-01
-5.300190448760986328e-01
-4.286069869995117188e-01
-2.813511192798614502e-01
-3.352796137332916260e-01
1.093362867832183838e-01
5.405822992324829102e-01
2.540726028382778168e-02
-6.078928112983703613e-01
-8.576305508613586426e-01
-2.083749473094940186e-01
1.050270795822143555e-01
1.550087630748748779e-01
-5.593819022178649902e-01
-2.001675516366958618e-01
1.583923846483230591e-01
-1.176624968647956848e-01
1.522263437509536743e-01
-4.171070754528045654e-01
1.013104245066642761e-01
-2.255767583847045898e-01
-1.508669495582580566e+00
6.185660362243652344e-01
2.504721581935882568e-01
5.063212513923645020e-01
-4.692180454730987549e-01
-1.059608697891235352e+00
-6.694918274879455566e-01
9.191858768463134766e-01
-8.954864740371704102e-02
-8.220236301422119141e-01
6.308223605155944824e-01
-1.629102230072021484e-01
7.593564987182617188e-01
-2.871176898479461670e-01
1.242822334170341492e-01
7.718759775161743164e-02
-1.777848154306411743e-01
-4.131520390510559082e-01
-4.072681069374084473e-01
-4.697960317134857178e-01
4.159446433186531067e-02
9.368726611137390137e-01
-8.702922463417053223e-01
2.990791499614715576e-01
6.531655192375183105e-01
2.206201255321502686e-01
-3.662937879562377930e-01
2.652832269668579102e-01
5.134606957435607910e-01
-1.697592437267303467e-01
-3.901456892490386963e-01
6.361171007156372070e-01
-1.232453346252441406e+00
-1.150337085127830505e-01
5.356462672352790833e-03
-3.693395555019378662e-01
-4.576942920684814453e-01
-9.534156918525695801e-01
9.521929174661636353e-02
-3.172662854194641113e-01
1.840556561946868896e-01
-1.924620032310485840e+00
-4.932191967964172363e-01
-2.302619218826293945e-01
-3.843134939670562744e-01
-5.469540357589721680e-01
-7.343036532402038574e-01
-4.700183868408203125e-02
-4.002972543239593506e-01
-1.150399208068847656e+00
1.626652121543884277e+00
-9.608633816242218018e-02
5.379314720630645752e-02
-2.628758549690246582e-01
6.936799883842468262e-01
-4.931506216526031494e-01
-5.301517248153686523e-01
-2.548157572746276855e-01
-3.384396433830261230e-01
-8.130887150764465332e-01
-2.076716423034667969e-01
-6.089642047882080078e-01
-4.794643074274063110e-02
1.819173544645309448e-01
5.491055846214294434e-01
-1.489997506141662598e-01
-2.073194742202758789e+00
-2.040984034538269043e-01
1.326552182435989380e-01
-8.564741015434265137e-01
-1.589690208435058594e+00
8.874831348657608032e-02
-1.751673817634582520e-01
-1.760831832885742188e+00
7.992830872535705566e-01
-5.911417603492736816e-01
-6.395844817161560059e-01
-1.293007135391235352e+00
-8.208086490631103516e-01
7.049440145492553711e-01
-5.371114611625671387e-01
6.698508262634277344e-01
3.326884508132934570e-01
-6.580145955085754395e-01
3.023273348808288574e-01
2.314564213156700134e-02
-2.789012491703033447e-01
3.138995468616485596e-01
5.538178086280822754e-01
-8.291580677032470703e-01
-1.935600340366363525e-01
-4.265260994434356689e-01
-7.831458449363708496e-01
-3.150315210223197937e-02
7.525856047868728638e-02
-4.370056390762329102e-01
-1.286139249801635742e+00
2.176059484481811523e-01
5.298582464456558228e-02
4.552171826362609863e-01
1.166372075676918030e-01
-3.109242618083953857e-01
6.233057472854852676e-03
-6.481651663780212402e-01
4.022341072559356689e-01
-1.138777583837509155e-01
-2.265763431787490845e-01
-8.066616952419281006e-02
-7.323145866394042969e-02
-1.132320642471313477e+00
5.087824463844299316e-01
-1.525568515062332153e-01
2.130339860916137695e+00
6.011701226234436035e-01
1.976754516363143921e-02
4.962123334407806396e-01
-4.559873342514038086e-01
-1.246586322784423828e+00
4.947031140327453613e-01
-1.140023708343505859e+00
-1.528419107198715210e-01
-1.489413529634475708e-01
2.867496572434902191e-02
1.320747435092926025e-01
-1.260852515697479248e-01
-2.723280489444732666e-01
-4.959071576595306396e-01
-1.274305582046508789e-01
6.695005893707275391e-01
-7.507495880126953125e-01
-7.507941126823425293e-01
9.390455484390258789e-01
-8.279570341110229492e-01
2.442920804023742676e-01
-9.872382879257202148e-02
1.003816366195678711e+00
1.133892312645912170e-01
-2.900981605052947998e-01
-2.081883847713470459e-01
4.291198849678039551e-01
9.978395700454711914e-02
-5.430882573127746582e-01
-7.789007425308227539e-01
-2.691923677921295166e-01
3.854407072067260742e-01
-8.826784491539001465e-01
-4.388076812028884888e-02
-1.006187126040458679e-01
2.048718333244323730e-01
4.902452230453491211e-01
-7.661342024803161621e-01
2.201303988695144653e-01
-1.029993295669555664e+00
-1.151163578033447266e+00
8.505221605300903320e-01
3.480588495731353760e-01
-2.355778068304061890e-01
6.756120175123214722e-02
-5.394278764724731445e-01
-1.361466050148010254e+00
-6.577760577201843262e-01
-8.641628026962280273e-01
1.371915787458419800e-01
-3.592743873596191406e-01
-3.061164617538452148e-01
-2.926656603813171387e-01
-8.326624631881713867e-01
1.557122021913528442e-01
3.785523474216461182e-01
8.540738821029663086e-01
-1.188272714614868164e+00
-3.928046226501464844e-01
7.946739792823791504e-01
5.919590126723051071e-03
-7.349011301994323730e-01
-3.210581541061401367e-01
-8.561294078826904297e-01
-5.033031702041625977e-01
1.114711642265319824e+00
-1.455744057893753052e-01
-1.638789176940917969e-01
-1.622110486030578613e+00
-1.259540021419525146e-01
1.792044006288051605e-02
-7.650328874588012695e-01
-8.261465430259704590e-01
-1.161371618509292603e-01
4.398015439510345459e-01
-1.535911083221435547e+00
-1.920562982559204102e-01
-2.429262995719909668e-01
-2.140241116285324097e-01
-7.067615985870361328e-01
4.508522152900695801e-01
4.100560545921325684e-01
5.952550470829010010e-02
9.323155879974365234e-02
1.994299739599227905e-01
3.650175034999847412e-01
-7.932396233081817627e-02
6.220885515213012695e-01
5.159892439842224121e-01
-4.665848612785339355e-01
8.577519655227661133e-01
-1.166452392935752869e-01
-6.450150609016418457e-01
-6.154847741127014160e-01
1.036703437566757202e-01
-1.008790373802185059e+00
2.847895398736000061e-02
-4.232550561428070068e-01
-1.137162372469902039e-01
-6.871539950370788574e-01
2.263630777597427368e-01
-7.852127552032470703e-01
2.047582268714904785e-01
-4.759877324104309082e-01
5.321209430694580078e-01
1.040479987859725952e-01
3.158205151557922363e-01
-1.717810779809951782e-01
2.604355812072753906e-01
-2.725951969623565674e-01
3.596832454204559326e-01
-8.015056848526000977e-01
-9.455035924911499023e-01
7.136636227369308472e-02
-9.919869899749755859e-01
-4.160436987876892090e-01
1.052584409713745117e+00
3.375230729579925537e-01
3.970052003860473633e-01
8.111401796340942383e-01
-1.278533935546875000e-01
-2.188927680253982544e-01
-7.580100297927856445e-01
-4.731703996658325195e-01
-6.716496497392654419e-02
-6.460319161415100098e-01
-4.554494917392730713e-01
-6.601997017860412598e-01
6.388713717460632324e-01
-3.615050911903381348e-01
-3.943550586700439453e-01
1.212892770767211914e+00
-3.580912053585052490e-01
-1.357078194618225098e+00
-2.777947485446929932e-01
4.455537796020507812e-01
2.394122332334518433e-01
-3.896995782852172852e-01
-1.178002282977104187e-01
2.901435196399688721e-01
-2.588011026382446289e-01
7.462834119796752930e-01
4.938331246376037598e-01
4.835268482565879822e-02
1.207784414291381836e+00
2.581458389759063721e-01
-2.285141199827194214e-01
-1.461233258247375488e+00
3.161107599735260010e-01
-2.396116554737091064e-01
9.977253675460815430e-01
5.826510787010192871e-01
-1.244862198829650879e+00
-1.709443777799606323e-01
4.852161407470703125e-01
3.651903867721557617e-01
-4.830696284770965576e-01
-6.560652256011962891e-01
3.383065164089202881e-01
8.353991806507110596e-02
1.072500467300415039e+00
5.431155562400817871e-01
1.161271035671234131e-01
-4.548960179090499878e-02
6.870849728584289551e-01
-5.784434676170349121e-01
-1.388903260231018066e-01
9.506500959396362305e-01
-5.215101838111877441e-01
-5.547235012054443359e-01
1.710349917411804199e-01
-4.320207834243774414e-01
-7.850253582000732422e-02
-1.301406145095825195e+00
5.698176473379135132e-02
-3.001067554578185081e-03
5.248678326606750488e-01
-1.149208784103393555e+00
3.663975894451141357e-01
-1.760255247354507446e-01
-1.519732236862182617e+00
-3.178906440734863281e-01
-1.345229029655456543e+00
-4.432106763124465942e-02
1.004696488380432129e+00
-1.009200289845466614e-01
3.668320775032043457e-01
-4.575437679886817932e-02
-1.556884288787841797e+00
-4.029021561145782471e-01
-1.290404200553894043e+00
-5.978363752365112305e-01
1.927340328693389893e-01
-2.447688132524490356e-01
-9.498957991600036621e-01
-4.752354323863983154e-02
-6.360002607107162476e-02
7.725647687911987305e-01
4.520404636859893799e-01
-5.377784371376037598e-01
1.432217210531234741e-01
6.523821502923965454e-02
6.102557480335235596e-02
-3.352499604225158691e-01
-2.624440789222717285e-01
5.374424159526824951e-02
1.237324953079223633e+00
-1.950575858354568481e-01
2.263692170381546021e-01
1.034207344055175781e-01
1.939174346625804901e-02
8.207085542380809784e-03
-5.195348262786865234e-01
5.483816266059875488e-01
-2.566733658313751221e-01
4.799181222915649414e-01
-6.927417963743209839e-02
-4.989512860774993896e-01
-5.205870270729064941e-01
-5.593335032463073730e-01
4.768957197666168213e-01
-1.525080323219299316e+00
4.895838499069213867e-01
-1.184472069144248962e-01
-3.728183805942535400e-01
-3.757090270519256592e-01
1.583628207445144653e-01
4.229285567998886108e-02
3.343950510025024414e-01
-2.499800175428390503e-01
-1.426107048988342285e+00
-7.090873122215270996e-01
-1.019916385412216187e-01
3.431881591677665710e-02
-4.109577834606170654e-01
-1.825505644083023071e-01
-1.556876450777053833e-01
-1.919891834259033203e-01
7.045680880546569824e-01
-7.145523279905319214e-02
-1.393874287605285645e+00
-9.349971264600753784e-02
-3.305090963840484619e-01
3.628031313419342041e-01
-2.487643212080001831e-01
-5.622205138206481934e-02
1.010666966438293457e+00
5.644088983535766602e-01
-3.174703568220138550e-02
-6.044182181358337402e-01
6.592617928981781006e-02
4.768612980842590332e-02
-3.459899723529815674e-01
-1.228981256484985352e+00
-8.338235616683959961e-01
-4.276182353496551514e-01
-1.530493259429931641e+00
8.834598660469055176e-01
1.974277570843696594e-02
-1.673408508300781250e+00
-1.133791655302047729e-01
6.687558889389038086e-01
-5.031516030430793762e-02
-1.363120675086975098e+00
-6.111137866973876953e-01
-6.780489087104797363e-01
-3.427732288837432861e-01
-1.070995330810546875e+00
-1.574246764183044434e+00
-1.106876581907272339e-01
2.908040396869182587e-02
-2.496910333633422852e+00
1.554137766361236572e-01
-9.588608145713806152e-01
-8.770905435085296631e-03
-1.292126923799514771e-01
3.955415487289428711e-01
-1.490395069122314453e-01
-4.522654414176940918e-01
-1.567968249320983887e+00
-4.372296929359436035e-01
1.647951304912567139e-01
9.206199645996093750e-02
-8.708742260932922363e-02
-4.804184734821319580e-01
-1.628262400627136230e+00
-1.327855110168457031e+00
-2.984448671340942383e-01
1.711743772029876709e-01
-1.813346743583679199e-01
-3.062649071216583252e-01
4.922122135758399963e-02
4.309052228927612305e-01
9.126291424036026001e-02
-8.124728202819824219e-01
-7.130029052495956421e-02
3.958589136600494385e-01
3.528095185756683350e-01
-2.359045594930648804e-01
-9.276919960975646973e-01
-1.270111322402954102e+00
-1.149362791329622269e-02
-6.895987987518310547e-01
-8.652445673942565918e-02
-1.492434889078140259e-01
-7.438367605209350586e-02
1.322953820228576660e+00
-8.978633284568786621e-01
7.006192207336425781e-01
-5.638815760612487793e-01
5.615721642971038818e-02
6.523538380861282349e-02
9.465824961662292480e-01
2.775180852040648460e-03
-8.440628647804260254e-02
-4.326538741588592529e-01
2.487599253654479980e-01
-1.625812500715255737e-01
-7.107998132705688477e-01
-2.257882617413997650e-02
7.829496264457702637e-02
2.285501360893249512e-01
4.752232506871223450e-02
4.906210601329803467e-01
-2.477629482746124268e-01
-1.231103658676147461e+00
-1.408654808998107910e+00
-8.465073108673095703e-01
2.442039996385574341e-01
-1.151894688606262207e+00
2.194460928440093994e-01
-1.532436609268188477e-01
3.884575143456459045e-02
-2.741043567657470703e-01
-3.840913176536560059e-01
-7.994537800550460815e-02
-5.182004570960998535e-01
9.257765412330627441e-01
-3.077183067798614502e-01
-3.799203932285308838e-01
-2.765974402427673340e-01
-7.400327324867248535e-01
-2.341445833444595337e-01
-1.250791847705841064e-01
-7.892664670944213867e-01
1.005043312907218933e-01
9.289345145225524902e-02
9.063313603401184082e-01
1.397902071475982666e-01
-1.037462428212165833e-01
-2.799841761589050293e-01
-7.983294725418090820e-01
