-4.058981239795684814e-01
4.258303642272949219e-01
-3.405257463455200195e-01
9.909521043300628662e-02
-2.332347929477691650e-01
-2.549640238285064697e-01
2.530666291713714600e-01
-5.991430282592773438e-01
6.445965170860290527e-02
1.624651402235031128e-01
-2.825864963233470917e-02
-1.564063727855682373e-01
2.678232491016387939e-01
1.372384727001190186e-01
-1.672693938016891479e-01
-3.652521073818206787e-01
-7.537588477134704590e-02
1.454728245735168457e-01
2.138215601444244385e-01
2.183991372585296631e-01
2.257683873176574707e-01
-4.964103400707244873e-01
-8.144551515579223633e-01
2.300449311733245850e-01
1.214880496263504028e-01
-2.385599762201309204e-01
1.498799473047256470e-01
-9.147874712944030762e-01
2.086124271154403687e-01
-1.856643520295619965e-02
-1.335674524307250977e-01
-2.005573548376560211e-02
3.163014054298400879e-01
5.840723589062690735e-02
1.721386015415191650e-01
-8.803118467330932617e-01
-3.325642645359039307e-02
-1.345819085836410522e-01
-4.125161170959472656e-01
2.258439660072326660e-01
1.522526424378156662e-02
2.004823833703994751e-01
1.799530088901519775e-01
-2.704570293426513672e-01
1.605214029550552368e-01
-2.577332779765129089e-02
-1.042118370532989502e-01
-3.008449673652648926e-01
1.329210400581359863e-01
-4.699085652828216553e-01
7.056272774934768677e-02
5.336874723434448242e-02
2.163868956267833710e-02
-4.196966998279094696e-03
-1.456545889377593994e-01
-1.674534231424331665e-01
-3.791301846504211426e-01
-4.083351492881774902e-01
-7.613011598587036133e-01
-6.893550604581832886e-02
-1.522249430418014526e-01
1.352477520704269409e-01
-1.802385151386260986e-01
1.237483024597167969e-01
