-4.295490384101867676e-01
-5.292735695838928223e-01
9.550417959690093994e-02
7.794337272644042969e-01
1.023621678352355957e+00
5.088905692100524902e-01
2.864651195704936981e-02
3.859035968780517578e-01
-9.557412862777709961e-01
-7.624190449714660645e-01
9.802057743072509766e-01
-1.616931110620498657e-01
8.618823885917663574e-01
1.093066334724426270e+00
-2.883395552635192871e-01
-3.440958559513092041e-01
-2.792643308639526367e-01
8.301551938056945801e-01
-8.692804574966430664e-01
-1.299449652433395386e-01
-4.735943078994750977e-01
1.530550479888916016e+00
9.969502091407775879e-01
2.457153499126434326e-01
3.447665572166442871e-01
5.183907151222229004e-01
-3.166974484920501709e-01
-2.039325088262557983e-01
-2.591419219970703125e-01
-1.465774327516555786e-01
-1.447514533996582031e+00
-6.412172317504882812e-01
-1.248391196131706238e-01
-9.716966748237609863e-01
-1.178232431411743164e+00
-4.682768583297729492e-01
-4.797425568103790283e-01
8.903244733810424805e-01
3.622058629989624023e-01
5.870584771037101746e-02
2.555147744715213776e-02
-1.035358905792236328e+00
-6.226491928100585938e-01
8.962497115135192871e-01
6.209181547164916992e-01
-1.166283011436462402e+00
-1.561085700988769531e+00
5.245594382286071777e-01
-1.267592072486877441e+00
-8.000237941741943359e-01
3.415660262107849121e-01
-1.733502559363842010e-02
-1.540728092193603516e+00
-1.252222359180450439e-01
-2.053172886371612549e-02
-7.618068251758813858e-03
1.007786273956298828e+00
-1.917900890111923218e-02
-4.250508546829223633e-01
9.745336771011352539e-01
-9.034952521324157715e-02
-3.157391250133514404e-01
7.362860441207885742e-01
1.003279447555541992e+00
