-1.372220158576965332e+00
3.254260718822479248e-01
2.145707607269287109e-01
3.998836874961853027e-01
7.398796677589416504e-01
-1.485562562942504883e+00
-5.766502022743225098e-01
-6.898768544197082520e-01
-8.462111949920654297e-01
1.338209807872772217e-01
1.903791129589080811e-01
-4.065684378147125244e-01
-6.161112785339355469e-01
-4.789992868900299072e-01
1.873662620782852173e-01
1.936817765235900879e-01
-9.007793664932250977e-01
-1.346950531005859375e+00
6.396542787551879883e-01
-1.348726749420166016e+00
-1.378338456153869629e+00
-1.580591440200805664e+00
-1.345393896102905273e+00
-2.853634767234325409e-02
1.274119257926940918e+00
-4.883527755737304688e-01
3.399541676044464111e-01
5.266184210777282715e-01
6.435825228691101074e-01
-7.439875006675720215e-01
1.099726915359497070e+00
1.335036873817443848e+00
1.262143492698669434e+00
6.068131923675537109e-01
-7.387249469757080078e-01
-8.720768094062805176e-01
8.226520568132400513e-02
-6.845514774322509766e-01
-8.609319329261779785e-01
3.802141919732093811e-02
-1.161240339279174805e+00
6.249155998229980469e-01
-1.356372356414794922e+00
-5.976794958114624023e-01
2.381785064935684204e-01
2.495409548282623291e-01
1.280156135559082031e+00
-9.866252541542053223e-01
2.238398194313049316e-01
-4.032393097877502441e-01
-3.698744177818298340e-01
-1.102765440940856934e+00
1.064764976501464844e+00
6.330521702766418457e-01
-8.667633682489395142e-02
7.009898126125335693e-02
-1.146096467971801758e+00
4.218049943447113037e-01
-6.027269363403320312e-01
6.882008910179138184e-01
8.842552304267883301e-01
-1.559354811906814575e-01
-9.197211265563964844e-01
6.746369600296020508e-01
